variant,M2,s0,theta_deg,f1_GeV,f2_GeV,amp_A,amp_B_low,amp_B_high,g_low_GeV_m2,g_high_GeV_m2,Gamma_low_keV,Gamma_high_keV,ratio_high_over_low
baseline,7.0,53.0,42.97371857761205,0.26324827046045435,0.7303741773822048,0.0032625608910413465,-0.004290397028387885,-0.004292428737438299,-0.0833866622610438,0.17562846089220996,83.73243730183286,393.1239281436202,4.69500161241592
radiative_JB_sign_flip,7.0,53.0,42.97371857761205,0.26324827046045435,0.7303741773822048,0.0032625608910413465,-0.004290397028387885,-0.004292428737438299,0.48866328676443616,-0.017813182863529783,2875.5437216044465,4.04410795477197,0.0014063802697166115
alternate_rotation_c_s,7.0,53.0,42.97371857761205,0.26324827046045435,0.7303741773822048,0.0032625608910413465,-0.004290397028387885,-0.004292428737438299,-0.04897449791062391,-0.17733073844883804,28.88288269092005,400.78156146488345,13.87609283165069
alternate_rotation_c_minus_s,7.0,53.0,42.97371857761205,0.26324827046045435,0.7303741773822048,0.0032625608910413465,-0.004290397028387885,-0.004292428737438299,0.48398034447070454,-0.030300891194373094,2820.694166993533,11.701741276035177,0.004148532447425026
swap_eigenstate_assignment,7.0,53.0,42.97371857761205,0.26324827046045435,0.7303741773822048,0.0032625608910413465,-0.004290397028387885,-0.004292428737438299,0.17444070801546943,-0.08406888463627152,366.4343964156824,90.07624197903289,0.24581819518070186
swap_assignment_and_JB_flip,7.0,53.0,42.97371857761205,0.26324827046045435,0.7303741773822048,0.0032625608910413465,-0.004290397028387885,-0.004292428737438299,-0.017651845137583853,0.4919986444454358,3.7521549870374566,3085.08760018298,822.2175285511954
baseline,7.0,54.0,43.07714202842204,0.26814895033179004,0.7406337082681362,0.0032795223902632987,-0.004320268736339123,-0.004322311609808235,-0.08192042063953008,0.17431841567978895,80.81368286959463,387.281032983925,4.792270556569768
radiative_JB_sign_flip,7.0,54.0,43.07714202842204,0.26814895033179004,0.7406337082681362,0.0032795223902632987,-0.004320268736339123,-0.004322311609808235,0.48263290786144214,-0.018143503003287313,2805.0099934306536,4.19548303884055,0.0014957105495760766
alternate_rotation_c_s,7.0,54.0,43.07714202842204,0.26814895033179004,0.7406337082681362,0.0032795223902632987,-0.004320268736339123,-0.004322311609808235,-0.049662047924244127,-0.1759314506894722,29.699545356759778,394.4815131689393,13.282409155773596
alternate_rotation_c_minus_s,7.0,54.0,43.07714202842204,0.26814895033179004,0.7406337082681362,0.0032795223902632987,-0.004320268736339123,-0.004322311609808235,0.4782153149336224,-0.02990237445121685,2753.895855917819,11.39596322385472,0.004138124250183989
swap_eigenstate_assignment,7.0,54.0,43.07714202842204,0.26814895033179004,0.7406337082681362,0.0032795223902632987,-0.004320268736339123,-0.004322311609808235,0.1731394794761519,-0.08259106160372516,360.98800129668217,86.93722723092021,0.2408313487391229
swap_assignment_and_JB_flip,7.0,54.0,43.07714202842204,0.26814895033179004,0.7406337082681362,0.0032795223902632987,-0.004320268736339123,-0.004322311609808235,-0.017980313174447014,0.4859268050981026,3.8930954831564297,3009.4102863526864,773.0121954041383
baseline,7.0,55.0,43.174846919598174,0.2726594085362706,0.7499357878963638,0.0032939127711641815,-0.004346080285330705,-0.0043481326979000435,-0.08055287923625686,0.1731129401763036,78.13807147530552,381.9431740970206,4.888054784123109
radiative_JB_sign_flip,7.0,55.0,43.174846919598174,0.2726594085362706,0.7499357878963638,0.0032939127711641815,-0.004346080285330705,-0.0043481326979000435,0.4770871031308963,-0.018445642535876834,2740.917129808684,4.336379312863795,0.0015820906315275845
alternate_rotation_c_s,7.0,55.0,43.174846919598174,0.2726594085362706,0.7499357878963638,0.0032939127711641815,-0.004346080285330705,-0.0043481326979000435,-0.050280291981555494,-0.17464162530320748,30.443608881981334,388.71850589840597,12.768476543149813
alternate_rotation_c_minus_s,7.0,55.0,43.174846919598174,0.2726594085362706,0.7499357878963638,0.0032939127711641815,-0.004346080285330705,-0.0043481326979000435,0.47291801126868704,-0.029527088590357017,2693.22266721536,11.111711114249129,0.004125804839500333
swap_eigenstate_assignment,7.0,55.0,43.174846919598174,0.2726594085362706,0.7499357878963638,0.0032939127711641815,-0.004346080285330705,-0.0043481326979000435,0.17194211467140832,-0.08121275024092736,356.0123626109328,84.05975574828415,0.23611470998311548
swap_assignment_and_JB_flip,7.0,55.0,43.174846919598174,0.2726594085362706,0.7499357878963638,0.0032939127711641815,-0.004346080285330705,-0.0043481326979000435,-0.018280758024867665,0.480342877490839,4.024287058182064,2940.643643871946,730.724126126419
baseline,8.0,53.0,43.169691306282814,0.2578642501393162,0.7089852374460419,0.0063286535469308765,-0.008400786723061819,-0.00840473037639686,-0.07783537772581403,0.16419972765524685,72.95492687029467,343.6248416512357,4.710097815081914
radiative_JB_sign_flip,8.0,53.0,43.169691306282814,0.2578642501393162,0.7089852374460419,0.0063286535469308765,-0.008400786723061819,-0.00840473037639686,0.45289235548770584,-0.01797112653904788,2469.963480626031,4.116141463284572,0.0016664786728916756
alternate_rotation_c_s,8.0,53.0,43.169691306282814,0.2578642501393162,0.7089852374460419,0.0063286535469308765,-0.008400786723061819,-0.00840473037639686,-0.04901985833996726,-0.1656851597746201,28.936410414310977,349.8701648528765,12.091000916956943
alternate_rotation_c_minus_s,8.0,53.0,43.169691306282814,0.2578642501393162,0.7089852374460419,0.0063286535469308765,-0.008400786723061819,-0.00840473037639686,0.4488385969868822,-0.028512856688985375,2425.944964170048,10.361464664925238,0.004271104587267522
swap_eigenstate_assignment,8.0,53.0,43.169691306282814,0.2578642501393162,0.7089852374460419,0.0063286535469308765,-0.008400786723061819,-0.00840473037639686,0.16324659828253985,-0.07839471527745163,320.9141245244366,78.32731906877231,0.24407563607505825
swap_assignment_and_JB_flip,8.0,53.0,43.169691306282814,0.2578642501393162,0.7089852374460419,0.0063286535469308765,-0.008400786723061819,-0.00840473037639686,-0.017828959398795915,0.455543303426628,3.8278291355077423,2644.837667385218,690.9497717260031
baseline,8.0,54.0,43.28944792015294,0.26361499337400185,0.7211454286763629,0.0063727364279643406,-0.008478425321929092,-0.008482397991849378,-0.07633320554692927,0.16281825470837222,70.16613471831839,337.8670796776672,4.815244291766007
radiative_JB_sign_flip,8.0,54.0,43.28944792015294,0.26361499337400185,0.7211454286763629,0.0063727364279643406,-0.008478425321929092,-0.008482397991849378,0.4465861830404326,-0.018338168718556598,2401.657740723202,4.285994565189019,0.0017845984015600798
alternate_rotation_c_s,8.0,54.0,43.28944792015294,0.26361499337400185,0.7211454286763629,0.0063727364279643406,-0.008478425321929092,-0.008482397991849378,-0.04977229406814284,-0.16420519519508997,29.831553390997914,343.64772614464624,11.519605487535447
alternate_rotation_c_minus_s,8.0,54.0,43.28944792015294,0.26361499337400185,0.7211454286763629,0.0063727364279643406,-0.008478425321929092,-0.008482397991849378,0.4428202139360383,-0.028104278939824767,2361.323159395882,10.066641032168084,0.004263135688189125
swap_eigenstate_assignment,8.0,54.0,43.28944792015294,0.26361499337400185,0.7211454286763629,0.0063727364279643406,-0.008478425321929092,-0.008482397991849378,0.16187310231846586,-0.07688209241932595,315.5367383563751,75.3338350722769,0.23874822141056987
swap_assignment_and_JB_flip,8.0,54.0,43.28944792015294,0.26361499337400185,0.7211454286763629,0.0063727364279643406,-0.008478425321929092,-0.008482397991849378,-0.01819428155436688,0.44919988944576994,3.986303619496003,2571.6920908987777,645.1320161167057
baseline,8.0,55.0,43.403825203342606,0.26898271278922997,0.7323365460719683,0.006410810803855617,-0.00854671995763944,-0.008550717866587225,-0.07491733372147028,0.1615292181736364,67.587312381038,332.5384513044983,4.920131302599241
radiative_JB_sign_flip,8.0,55.0,43.403825203342606,0.26898271278922997,0.7323365460719683,0.006410810803855617,-0.00854671995763944,-0.008550717866587225,0.4407224738583838,-0.018676396818878182,2339.0039007849873,4.4455538313863,0.00190061839139915
alternate_rotation_c_s,8.0,55.0,43.403825203342606,0.26898271278922997,0.7323365460719683,0.006410810803855617,-0.00854671995763944,-0.008550717866587225,-0.05045258966534336,-0.16282193851461335,30.652611270303733,337.88236851538556,11.022955451848443
alternate_rotation_c_minus_s,8.0,55.0,43.403825203342606,0.26898271278922997,0.7323365460719683,0.006410810803855617,-0.00854671995763944,-0.008550717866587225,0.43722895132397066,-0.02771467365866869,2302.069199674252,9.789471042273519,0.004252466017815082
swap_eigenstate_assignment,8.0,55.0,43.403825203342606,0.26898271278922997,0.7323365460719683,0.006410810803855617,-0.00854671995763944,-0.008550717866587225,0.160591506825544,-0.07545640451104059,310.5601286703764,72.56578577554704,0.23366098567201207
swap_assignment_and_JB_flip,8.0,55.0,43.403825203342606,0.26898271278922997,0.7323365460719683,0.006410810803855617,-0.00854671995763944,-0.008550717866587225,-0.01853092612708732,0.44330155956888206,4.135183643278656,2504.5990192058075,605.6802394439708
baseline,9.0,53.0,43.32213038297105,0.2546121986865104,0.6952361568459186,0.010663838902955039,-0.014266039398921177,-0.0142726884815514,-0.07412144991387985,0.15632785593765489,66.1589134443452,311.4672804109614,4.7078657159775865
radiative_JB_sign_flip,9.0,53.0,43.32213038297105,0.2546121986865104,0.6952361568459186,0.010663838902955039,-0.014266039398921177,-0.0142726884815514,0.4283150809507254,-0.018121542581115067,2209.1605747622853,4.185332979054536,0.0018945354298226579
alternate_rotation_c_s,9.0,53.0,43.32213038297105,0.2546121986865104,0.6952361568459186,0.010663838902955039,-0.014266039398921177,-0.0142726884815514,-0.04913418081495039,-0.1576589352494099,29.071536857635888,316.7939406945181,10.89704827941731
alternate_rotation_c_minus_s,9.0,53.0,43.32213038297105,0.2546121986865104,0.6952361568459186,0.010663838902955039,-0.014266039398921177,-0.0142726884815514,0.42470458786884663,-0.027319070764442385,2172.0731981755757,9.511993262611211,0.004379223163658008
swap_eigenstate_assignment,9.0,53.0,43.32213038297105,0.2546121986865104,0.6952361568459186,0.010663838902955039,-0.014266039398921177,-0.0142726884815514,0.1555370327689972,-0.07459660560198797,291.3185709191355,70.92148489455381,0.24344992724216086
swap_assignment_and_JB_flip,9.0,53.0,43.32213038297105,0.2546121986865104,0.6952361568459186,0.010663838902955039,-0.014266039398921177,-0.0142726884815514,-0.01799411852327991,0.43049858883696335,3.8990760435251595,2362.0177242939626,605.789088985928
baseline,9.0,54.0,43.455073756864564,0.26110241639811826,0.7090638173945522,0.01075650155224957,-0.014429239964184389,-0.014435950040447988,-0.07260987719659676,0.1549091550235596,63.48804533876528,305.8396991842932,4.8172801281306725
radiative_JB_sign_flip,9.0,54.0,43.455073756864564,0.26110241639811826,0.7090638173945522,0.01075650155224957,-0.014429239964184389,-0.014435950040447988,0.4218567804256479,-0.01852000359601904,2143.041688605214,4.371412815678475,0.0020398169755267725
alternate_rotation_c_s,9.0,54.0,43.455073756864564,0.26110241639811826,0.7090638173945522,0.01075650155224957,-0.014429239964184389,-0.014435950040447988,-0.04994357464739457,-0.1561344027177573,30.037224339987283,310.6968858318097,10.343728245828364
alternate_rotation_c_minus_s,9.0,54.0,43.455073756864564,0.26110241639811826,0.7090638173945522,0.01075650155224957,-0.014429239964184389,-0.014435950040447988,0.41855144196758937,-0.02690903073531569,2109.5908676064364,9.228599463195074,0.004374592061856022
swap_eigenstate_assignment,9.0,54.0,43.455073756864564,0.26110241639811826,0.7090638173945522,0.01075650155224957,-0.014429239964184389,-0.014435950040447988,0.15412546826351992,-0.07307561652925318,286.0548858379177,68.05885902394661,0.23792237921260193
swap_assignment_and_JB_flip,9.0,54.0,43.455073756864564,0.26110241639811826,0.7090638173945522,0.01075650155224957,-0.014429239964184389,-0.014435950040447988,-0.01839099345375046,0.42400701282238007,4.072967375523336,2291.3201116093774,562.5677547478429
baseline,9.0,55.0,43.58301768518727,0.26722504325816265,0.7219340070264485,0.01083765351912268,-0.014574806705300087,-0.014581570576639627,-0.07117441877349756,0.15357156752898193,61.00260910670148,300.58085967531326,4.927344323085564
radiative_JB_sign_flip,9.0,55.0,43.58301768518727,0.26722504325816265,0.7219340070264485,0.01083765351912268,-0.014574806705300087,-0.014581570576639627,0.41580339665056537,-0.01888913477599335,2081.9803066043023,4.54740692189774,0.002184173840392628
alternate_rotation_c_s,9.0,55.0,43.58301768518727,0.26722504325816265,0.7219340070264485,0.01083765351912268,-0.014574806705300087,-0.014581570576639627,-0.050678309777365045,-0.1546946722309723,30.927498572299598,304.993371662277,9.861559639208783
alternate_rotation_c_minus_s,9.0,55.0,43.58301768518727,0.26722504325816265,0.7219340070264485,0.01083765351912268,-0.014574806705300087,-0.014581570576639627,0.4127892414541502,-0.026514423922177458,2051.9051960699,8.959918908861463,0.004366633958539006
swap_eigenstate_assignment,9.0,55.0,43.58301768518727,0.26722504325816265,0.7219340070264485,0.01083765351912268,-0.014574806705300087,-0.014581570576639627,0.15279460702846245,-0.07163125159509462,281.1360919682605,65.3950335467187,0.23260988330911855
swap_assignment_and_JB_flip,9.0,55.0,43.58301768518727,0.26722504325816265,0.7219340070264485,0.01083765351912268,-0.014574806705300087,-0.014581570576639627,-0.018758658534852486,0.4179224492872733,4.237445326238194,2226.030388696438,525.3236838037516
